digraph Tree {
0 [label="X[9] <= 0.1084\ngini = 0.49995\nsamples = 200", shape="box"] ;
1 [label="X[13] <= 3.3245\ngini = 0.363378099174\nsamples = 88", shape="box"] ;
0 -> 1 ;
2 [label="X[11] <= 2.6126\ngini = 0.291619932703\nsamples = 79", shape="box"] ;
1 -> 2 ;
3 [label="X[10] <= 4.7748\ngini = 0.202448979592\nsamples = 70", shape="box"] ;
2 -> 3 ;
4 [label="X[12] <= -4.2964\ngini = 0.160899653979\nsamples = 68", shape="box"] ;
3 -> 4 ;
5 [label="X[2] <= 0.4291\ngini = 0.444444444444\nsamples = 3", shape="box"] ;
4 -> 5 ;
6 [label="gini = 0.0000\nsamples = 1\nvalue = [ 1.  0.]", shape="box"] ;
5 -> 6 ;
7 [label="gini = 0.0000\nsamples = 2\nvalue = [ 0.  2.]", shape="box"] ;
5 -> 7 ;
8 [label="X[2] <= -4.6342\ngini = 0.11550295858\nsamples = 65", shape="box"] ;
4 -> 8 ;
9 [label="gini = 0.0000\nsamples = 1\nvalue = [ 0.  1.]", shape="box"] ;
8 -> 9 ;
10 [label="X[15] <= 3.9636\ngini = 0.08935546875\nsamples = 64", shape="box"] ;
8 -> 10 ;
11 [label="X[15] <= -4.2572\ngini = 0.0338882282996\nsamples = 58", shape="box"] ;
10 -> 11 ;
12 [label="X[8] <= 1.9211\ngini = 0.444444444444\nsamples = 3", shape="box"] ;
11 -> 12 ;
13 [label="gini = 0.0000\nsamples = 2\nvalue = [ 2.  0.]", shape="box"] ;
12 -> 13 ;
14 [label="gini = 0.0000\nsamples = 1\nvalue = [ 0.  1.]", shape="box"] ;
12 -> 14 ;
15 [label="gini = 0.0000\nsamples = 55\nvalue = [ 55.   0.]", shape="box"] ;
11 -> 15 ;
16 [label="X[12] <= -1.5600\ngini = 0.444444444444\nsamples = 6", shape="box"] ;
10 -> 16 ;
17 [label="gini = 0.0000\nsamples = 2\nvalue = [ 0.  2.]", shape="box"] ;
16 -> 17 ;
18 [label="gini = 0.0000\nsamples = 4\nvalue = [ 4.  0.]", shape="box"] ;
16 -> 18 ;
19 [label="gini = 0.0000\nsamples = 2\nvalue = [ 0.  2.]", shape="box"] ;
3 -> 19 ;
20 [label="X[16] <= 4.0694\ngini = 0.444444444444\nsamples = 9", shape="box"] ;
2 -> 20 ;
21 [label="gini = 0.0000\nsamples = 6\nvalue = [ 0.  6.]", shape="box"] ;
20 -> 21 ;
22 [label="gini = 0.0000\nsamples = 3\nvalue = [ 3.  0.]", shape="box"] ;
20 -> 22 ;
23 [label="X[12] <= -0.2428\ngini = 0.345679012346\nsamples = 9", shape="box"] ;
1 -> 23 ;
24 [label="gini = 0.0000\nsamples = 2\nvalue = [ 2.  0.]", shape="box"] ;
23 -> 24 ;
25 [label="gini = 0.0000\nsamples = 7\nvalue = [ 0.  7.]", shape="box"] ;
23 -> 25 ;
26 [label="X[14] <= -2.3522\ngini = 0.422831632653\nsamples = 112", shape="box"] ;
0 -> 26 ;
27 [label="X[5] <= -0.6385\ngini = 0.401234567901\nsamples = 18", shape="box"] ;
26 -> 27 ;
28 [label="X[2] <= 0.2324\ngini = 0.408163265306\nsamples = 7", shape="box"] ;
27 -> 28 ;
29 [label="gini = 0.0000\nsamples = 5\nvalue = [ 0.  5.]", shape="box"] ;
28 -> 29 ;
30 [label="gini = 0.0000\nsamples = 2\nvalue = [ 2.  0.]", shape="box"] ;
28 -> 30 ;
31 [label="gini = 0.0000\nsamples = 11\nvalue = [ 11.   0.]", shape="box"] ;
27 -> 31 ;
32 [label="X[5] <= 3.6102\ngini = 0.346989588049\nsamples = 94", shape="box"] ;
26 -> 32 ;
33 [label="X[15] <= -4.1213\ngini = 0.269471117208\nsamples = 81", shape="box"] ;
32 -> 33 ;
34 [label="X[4] <= -0.7779\ngini = 0.444444444444\nsamples = 9", shape="box"] ;
33 -> 34 ;
35 [label="X[3] <= -2.6533\ngini = 0.375\nsamples = 4", shape="box"] ;
34 -> 35 ;
36 [label="gini = 0.0000\nsamples = 1\nvalue = [ 1.  0.]", shape="box"] ;
35 -> 36 ;
37 [label="gini = 0.0000\nsamples = 3\nvalue = [ 0.  3.]", shape="box"] ;
35 -> 37 ;
38 [label="gini = 0.0000\nsamples = 5\nvalue = [ 5.  0.]", shape="box"] ;
34 -> 38 ;
39 [label="X[13] <= -3.9741\ngini = 0.175540123457\nsamples = 72", shape="box"] ;
33 -> 39 ;
40 [label="gini = 0.0000\nsamples = 2\nvalue = [ 2.  0.]", shape="box"] ;
39 -> 40 ;
41 [label="X[7] <= -7.1546\ngini = 0.132653061224\nsamples = 70", shape="box"] ;
39 -> 41 ;
42 [label="gini = 0.0000\nsamples = 1\nvalue = [ 1.  0.]", shape="box"] ;
41 -> 42 ;
43 [label="X[11] <= -6.4421\ngini = 0.109220751943\nsamples = 69", shape="box"] ;
41 -> 43 ;
44 [label="gini = 0.0000\nsamples = 1\nvalue = [ 1.  0.]", shape="box"] ;
43 -> 44 ;
45 [label="X[8] <= 3.5017\ngini = 0.0843425605536\nsamples = 68", shape="box"] ;
43 -> 45 ;
46 [label="X[15] <= -3.4448\ngini = 0.03076171875\nsamples = 64", shape="box"] ;
45 -> 46 ;
47 [label="X[1] <= -0.9560\ngini = 0.32\nsamples = 5", shape="box"] ;
46 -> 47 ;
48 [label="gini = 0.0000\nsamples = 1\nvalue = [ 1.  0.]", shape="box"] ;
47 -> 48 ;
49 [label="gini = 0.0000\nsamples = 4\nvalue = [ 0.  4.]", shape="box"] ;
47 -> 49 ;
50 [label="gini = 0.0000\nsamples = 59\nvalue = [  0.  59.]", shape="box"] ;
46 -> 50 ;
51 [label="X[5] <= 0.3202\ngini = 0.5\nsamples = 4", shape="box"] ;
45 -> 51 ;
52 [label="gini = 0.0000\nsamples = 2\nvalue = [ 2.  0.]", shape="box"] ;
51 -> 52 ;
53 [label="gini = 0.0000\nsamples = 2\nvalue = [ 0.  2.]", shape="box"] ;
51 -> 53 ;
54 [label="X[17] <= -0.9886\ngini = 0.473372781065\nsamples = 13", shape="box"] ;
32 -> 54 ;
55 [label="gini = 0.0000\nsamples = 6\nvalue = [ 6.  0.]", shape="box"] ;
54 -> 55 ;
56 [label="X[10] <= -0.0423\ngini = 0.408163265306\nsamples = 7", shape="box"] ;
54 -> 56 ;
57 [label="gini = 0.0000\nsamples = 2\nvalue = [ 2.  0.]", shape="box"] ;
56 -> 57 ;
58 [label="gini = 0.0000\nsamples = 5\nvalue = [ 0.  5.]", shape="box"] ;
56 -> 58 ;
}