digraph Tree {
0 [label="X[2] <= 0.5924\ngini = 0.4998\nsamples = 200", shape="box"] ;
1 [label="X[8] <= -0.5232\ngini = 0.428800284799\nsamples = 106", shape="box"] ;
0 -> 1 ;
2 [label="X[0] <= -4.5413\ngini = 0.16262755102\nsamples = 56", shape="box"] ;
1 -> 2 ;
3 [label="gini = 0.0000\nsamples = 2\nvalue = [ 2.  0.]", shape="box"] ;
2 -> 3 ;
4 [label="X[4] <= -5.6600\ngini = 0.104938271605\nsamples = 54", shape="box"] ;
2 -> 4 ;
5 [label="gini = 0.0000\nsamples = 1\nvalue = [ 1.  0.]", shape="box"] ;
4 -> 5 ;
6 [label="X[3] <= 4.8312\ngini = 0.0726237095052\nsamples = 53", shape="box"] ;
4 -> 6 ;
7 [label="X[16] <= -4.7804\ngini = 0.0377218934911\nsamples = 52", shape="box"] ;
6 -> 7 ;
8 [label="X[15] <= -1.9305\ngini = 0.375\nsamples = 4", shape="box"] ;
7 -> 8 ;
9 [label="gini = 0.0000\nsamples = 1\nvalue = [ 1.  0.]", shape="box"] ;
8 -> 9 ;
10 [label="gini = 0.0000\nsamples = 3\nvalue = [ 0.  3.]", shape="box"] ;
8 -> 10 ;
11 [label="gini = 0.0000\nsamples = 48\nvalue = [  0.  48.]", shape="box"] ;
7 -> 11 ;
12 [label="gini = 0.0000\nsamples = 1\nvalue = [ 1.  0.]", shape="box"] ;
6 -> 12 ;
13 [label="X[17] <= -1.6811\ngini = 0.4928\nsamples = 50", shape="box"] ;
1 -> 13 ;
14 [label="X[13] <= -3.2540\ngini = 0.375\nsamples = 24", shape="box"] ;
13 -> 14 ;
15 [label="gini = 0.0000\nsamples = 4\nvalue = [ 4.  0.]", shape="box"] ;
14 -> 15 ;
16 [label="X[0] <= -4.6907\ngini = 0.18\nsamples = 20", shape="box"] ;
14 -> 16 ;
17 [label="gini = 0.0000\nsamples = 1\nvalue = [ 1.  0.]", shape="box"] ;
16 -> 17 ;
18 [label="X[9] <= -4.8497\ngini = 0.0997229916898\nsamples = 19", shape="box"] ;
16 -> 18 ;
19 [label="gini = 0.0000\nsamples = 1\nvalue = [ 1.  0.]", shape="box"] ;
18 -> 19 ;
20 [label="gini = 0.0000\nsamples = 18\nvalue = [  0.  18.]", shape="box"] ;
18 -> 20 ;
21 [label="X[10] <= -2.5367\ngini = 0.260355029586\nsamples = 26", shape="box"] ;
13 -> 21 ;
22 [label="X[18] <= -4.4876\ngini = 0.48\nsamples = 5", shape="box"] ;
21 -> 22 ;
23 [label="gini = 0.0000\nsamples = 2\nvalue = [ 2.  0.]", shape="box"] ;
22 -> 23 ;
24 [label="gini = 0.0000\nsamples = 3\nvalue = [ 0.  3.]", shape="box"] ;
22 -> 24 ;
25 [label="X[9] <= 2.5874\ngini = 0.0907029478458\nsamples = 21", shape="box"] ;
21 -> 25 ;
26 [label="gini = 0.0000\nsamples = 20\nvalue = [ 20.   0.]", shape="box"] ;
25 -> 26 ;
27 [label="gini = 0.0000\nsamples = 1\nvalue = [ 0.  1.]", shape="box"] ;
25 -> 27 ;
28 [label="X[16] <= -1.3606\ngini = 0.390448166591\nsamples = 94", shape="box"] ;
0 -> 28 ;
29 [label="X[1] <= -0.7987\ngini = 0.495317377732\nsamples = 31", shape="box"] ;
28 -> 29 ;
30 [label="X[2] <= 3.1239\ngini = 0.18\nsamples = 10", shape="box"] ;
29 -> 30 ;
31 [label="gini = 0.0000\nsamples = 9\nvalue = [ 9.  0.]", shape="box"] ;
30 -> 31 ;
32 [label="gini = 0.0000\nsamples = 1\nvalue = [ 0.  1.]", shape="box"] ;
30 -> 32 ;
33 [label="X[12] <= 4.3849\ngini = 0.362811791383\nsamples = 21", shape="box"] ;
29 -> 33 ;
34 [label="X[7] <= -4.8570\ngini = 0.265927977839\nsamples = 19", shape="box"] ;
33 -> 34 ;
35 [label="gini = 0.0000\nsamples = 1\nvalue = [ 1.  0.]", shape="box"] ;
34 -> 35 ;
36 [label="X[17] <= 3.4078\ngini = 0.197530864198\nsamples = 18", shape="box"] ;
34 -> 36 ;
37 [label="X[10] <= -3.0440\ngini = 0.110726643599\nsamples = 17", shape="box"] ;
36 -> 37 ;
38 [label="X[17] <= -2.2311\ngini = 0.5\nsamples = 2", shape="box"] ;
37 -> 38 ;
39 [label="gini = 0.0000\nsamples = 1\nvalue = [ 1.  0.]", shape="box"] ;
38 -> 39 ;
40 [label="gini = 0.0000\nsamples = 1\nvalue = [ 0.  1.]", shape="box"] ;
38 -> 40 ;
41 [label="gini = 0.0000\nsamples = 15\nvalue = [  0.  15.]", shape="box"] ;
37 -> 41 ;
42 [label="gini = 0.0000\nsamples = 1\nvalue = [ 1.  0.]", shape="box"] ;
36 -> 42 ;
43 [label="gini = 0.0000\nsamples = 2\nvalue = [ 2.  0.]", shape="box"] ;
33 -> 43 ;
44 [label="X[8] <= -4.3131\ngini = 0.221718316956\nsamples = 63", shape="box"] ;
28 -> 44 ;
45 [label="gini = 0.0000\nsamples = 3\nvalue = [ 0.  3.]", shape="box"] ;
44 -> 45 ;
46 [label="X[17] <= -5.7876\ngini = 0.152777777778\nsamples = 60", shape="box"] ;
44 -> 46 ;
47 [label="gini = 0.0000\nsamples = 1\nvalue = [ 0.  1.]", shape="box"] ;
46 -> 47 ;
48 [label="X[5] <= -5.3237\ngini = 0.126400459638\nsamples = 59", shape="box"] ;
46 -> 48 ;
49 [label="gini = 0.0000\nsamples = 1\nvalue = [ 0.  1.]", shape="box"] ;
48 -> 49 ;
50 [label="X[4] <= -6.2873\ngini = 0.0980975029727\nsamples = 58", shape="box"] ;
48 -> 50 ;
51 [label="gini = 0.0000\nsamples = 1\nvalue = [ 0.  1.]", shape="box"] ;
50 -> 51 ;
52 [label="X[0] <= 5.2777\ngini = 0.0677131425054\nsamples = 57", shape="box"] ;
50 -> 52 ;
53 [label="X[4] <= 4.1474\ngini = 0.0350765306122\nsamples = 56", shape="box"] ;
52 -> 53 ;
54 [label="gini = 0.0000\nsamples = 54\nvalue = [ 54.   0.]", shape="box"] ;
53 -> 54 ;
55 [label="X[6] <= -2.7707\ngini = 0.5\nsamples = 2", shape="box"] ;
53 -> 55 ;
56 [label="gini = 0.0000\nsamples = 1\nvalue = [ 1.  0.]", shape="box"] ;
55 -> 56 ;
57 [label="gini = 0.0000\nsamples = 1\nvalue = [ 0.  1.]", shape="box"] ;
55 -> 57 ;
58 [label="gini = 0.0000\nsamples = 1\nvalue = [ 0.  1.]", shape="box"] ;
52 -> 58 ;
}