digraph Tree {
0 [label="X[2] <= -0.1717\nmse = 76430.8500093\nsamples = 200", shape="box"] ;
1 [label="X[16] <= -1.1514\nmse = 65155.7392615\nsamples = 92", shape="box"] ;
0 -> 1 ;
2 [label="X[15] <= -2.2942\nmse = 50020.4185295\nsamples = 13", shape="box"] ;
1 -> 2 ;
3 [label="mse = 0.0000\nsamples = 1\nvalue = [-1022.03664071]", shape="box"] ;
2 -> 3 ;
4 [label="X[17] <= 0.6760\nmse = 20114.8780239\nsamples = 12", shape="box"] ;
2 -> 4 ;
5 [label="X[9] <= -0.2498\nmse = 8035.96717173\nsamples = 10", shape="box"] ;
4 -> 5 ;
6 [label="X[19] <= -1.0274\nmse = 1017.81443351\nsamples = 6", shape="box"] ;
5 -> 6 ;
7 [label="X[3] <= -0.3399\nmse = 115.922414881\nsamples = 3", shape="box"] ;
6 -> 7 ;
8 [label="mse = 0.0000\nsamples = 1\nvalue = [-387.836915]", shape="box"] ;
7 -> 8 ;
9 [label="X[8] <= -0.2039\nmse = 1.01049393497\nsamples = 2", shape="box"] ;
7 -> 9 ;
10 [label="mse = 0.0000\nsamples = 1\nvalue = [-364.05846532]", shape="box"] ;
9 -> 10 ;
11 [label="mse = 0.0000\nsamples = 1\nvalue = [-366.06893187]", shape="box"] ;
9 -> 11 ;
12 [label="X[2] <= -1.3369\nmse = 275.718926151\nsamples = 3", shape="box"] ;
6 -> 12 ;
13 [label="mse = 0.0000\nsamples = 1\nvalue = [-293.02337293]", shape="box"] ;
12 -> 13 ;
14 [label="X[19] <= -0.5087\nmse = 40.9275736719\nsamples = 2", shape="box"] ;
12 -> 14 ;
15 [label="mse = 0.0000\nsamples = 1\nvalue = [-332.85663501]", shape="box"] ;
14 -> 15 ;
16 [label="mse = 0.0000\nsamples = 1\nvalue = [-320.06170263]", shape="box"] ;
14 -> 16 ;
17 [label="X[1] <= -0.5360\nmse = 4543.07009621\nsamples = 4", shape="box"] ;
5 -> 17 ;
18 [label="X[13] <= -1.5838\nmse = 1173.8058955\nsamples = 3", shape="box"] ;
17 -> 18 ;
19 [label="mse = 0.0000\nsamples = 1\nvalue = [-415.25883611]", shape="box"] ;
18 -> 19 ;
20 [label="X[6] <= -0.8927\nmse = 128.79891816\nsamples = 2", shape="box"] ;
18 -> 20 ;
21 [label="mse = 0.0000\nsamples = 1\nvalue = [-496.57728896]", shape="box"] ;
20 -> 21 ;
22 [label="mse = -0.0000\nsamples = 1\nvalue = [-473.87936675]", shape="box"] ;
20 -> 22 ;
23 [label="mse = -0.0000\nsamples = 1\nvalue = [-601.67098093]", shape="box"] ;
17 -> 23 ;
24 [label="X[4] <= 0.3684\nmse = 9517.53610816\nsamples = 2", shape="box"] ;
4 -> 24 ;
25 [label="mse = 0.0000\nsamples = 1\nvalue = [-15.69765728]", shape="box"] ;
24 -> 25 ;
26 [label="mse = 0.0000\nsamples = 1\nvalue = [-210.8133779]", shape="box"] ;
24 -> 26 ;
27 [label="X[5] <= 1.3283\nmse = 50098.0877934\nsamples = 79", shape="box"] ;
1 -> 27 ;
28 [label="X[17] <= -0.4919\nmse = 38333.4400896\nsamples = 75", shape="box"] ;
27 -> 28 ;
29 [label="X[6] <= 0.7288\nmse = 26578.2549134\nsamples = 22", shape="box"] ;
28 -> 29 ;
30 [label="X[3] <= -0.8286\nmse = 14568.799471\nsamples = 16", shape="box"] ;
29 -> 30 ;
31 [label="X[11] <= 0.4081\nmse = 6103.96694108\nsamples = 5", shape="box"] ;
30 -> 31 ;
32 [label="X[9] <= -0.0823\nmse = 614.016252254\nsamples = 2", shape="box"] ;
31 -> 32 ;
33 [label="mse = 0.0000\nsamples = 1\nvalue = [-408.74024733]", shape="box"] ;
32 -> 33 ;
34 [label="mse = 0.0000\nsamples = 1\nvalue = [-359.18154468]", shape="box"] ;
32 -> 34 ;
35 [label="X[10] <= 0.0236\nmse = 898.934628805\nsamples = 3", shape="box"] ;
31 -> 35 ;
36 [label="mse = 0.0000\nsamples = 1\nvalue = [-196.05673596]", shape="box"] ;
35 -> 36 ;
37 [label="X[16] <= 0.5616\nmse = 205.696301757\nsamples = 2", shape="box"] ;
35 -> 37 ;
38 [label="mse = 0.0000\nsamples = 1\nvalue = [-268.9489755]", shape="box"] ;
37 -> 38 ;
39 [label="mse = 0.0000\nsamples = 1\nvalue = [-240.26474278]", shape="box"] ;
37 -> 39 ;
40 [label="X[12] <= 0.3986\nmse = 8388.92165821\nsamples = 11", shape="box"] ;
30 -> 40 ;
41 [label="X[6] <= 0.2022\nmse = 3947.06564957\nsamples = 8", shape="box"] ;
40 -> 41 ;
42 [label="X[10] <= 1.0387\nmse = 1495.9702471\nsamples = 6", shape="box"] ;
41 -> 42 ;
43 [label="X[14] <= 0.5239\nmse = 239.187757905\nsamples = 4", shape="box"] ;
42 -> 43 ;
44 [label="X[10] <= -0.9997\nmse = 18.6970503641\nsamples = 2", shape="box"] ;
43 -> 44 ;
45 [label="mse = 0.0000\nsamples = 1\nvalue = [-90.14845601]", shape="box"] ;
44 -> 45 ;
46 [label="mse = -0.0000\nsamples = 1\nvalue = [-98.79647321]", shape="box"] ;
44 -> 46 ;
47 [label="X[8] <= 1.5628\nmse = 59.4711620373\nsamples = 2", shape="box"] ;
43 -> 47 ;
48 [label="mse = 0.0000\nsamples = 1\nvalue = [-130.47581898]", shape="box"] ;
47 -> 48 ;
49 [label="mse = 0.0000\nsamples = 1\nvalue = [-115.05230939]", shape="box"] ;
47 -> 49 ;
50 [label="X[1] <= 0.5281\nmse = 635.431672088\nsamples = 2", shape="box"] ;
42 -> 50 ;
51 [label="mse = 0.0000\nsamples = 1\nvalue = [-154.55229167]", shape="box"] ;
50 -> 51 ;
52 [label="mse = -0.0000\nsamples = 1\nvalue = [-204.96783182]", shape="box"] ;
50 -> 52 ;
53 [label="X[17] <= -0.7541\nmse = 1465.45449975\nsamples = 2", shape="box"] ;
41 -> 53 ;
54 [label="mse = 0.0000\nsamples = 1\nvalue = [-285.12631803]", shape="box"] ;
53 -> 54 ;
55 [label="mse = -0.0000\nsamples = 1\nvalue = [-208.56380763]", shape="box"] ;
53 -> 55 ;
56 [label="X[0] <= -0.2788\nmse = 32.8160095364\nsamples = 3", shape="box"] ;
40 -> 56 ;
57 [label="X[14] <= 1.9721\nmse = 10.4396867532\nsamples = 2", shape="box"] ;
56 -> 57 ;
58 [label="mse = 0.0000\nsamples = 1\nvalue = [-1.12434656]", shape="box"] ;
57 -> 58 ;
59 [label="mse = 0.0000\nsamples = 1\nvalue = [ 5.33775426]", shape="box"] ;
57 -> 59 ;
60 [label="mse = 0.0000\nsamples = 1\nvalue = [ 12.89340782]", shape="box"] ;
56 -> 60 ;
61 [label="X[4] <= -0.2860\nmse = 14285.9379254\nsamples = 6", shape="box"] ;
29 -> 61 ;
62 [label="X[2] <= -1.1163\nmse = 2963.24282646\nsamples = 3", shape="box"] ;
61 -> 62 ;
63 [label="mse = 0.0000\nsamples = 1\nvalue = [-453.38965697]", shape="box"] ;
62 -> 63 ;
64 [label="X[17] <= -0.6858\nmse = 65.8540422642\nsamples = 2", shape="box"] ;
62 -> 64 ;
65 [label="mse = 0.0000\nsamples = 1\nvalue = [-559.89149277]", shape="box"] ;
64 -> 65 ;
66 [label="mse = 0.0000\nsamples = 1\nvalue = [-576.12159348]", shape="box"] ;
64 -> 66 ;
67 [label="X[2] <= -1.4875\nmse = 761.09652918\nsamples = 3", shape="box"] ;
61 -> 67 ;
68 [label="X[13] <= 0.0265\nmse = 1.14541514718\nsamples = 2", shape="box"] ;
67 -> 68 ;
69 [label="mse = 0.0000\nsamples = 1\nvalue = [-327.44509543]", shape="box"] ;
68 -> 69 ;
70 [label="mse = 0.0000\nsamples = 1\nvalue = [-325.30461403]", shape="box"] ;
68 -> 70 ;
71 [label="mse = -0.0000\nsamples = 1\nvalue = [-267.88128127]", shape="box"] ;
67 -> 71 ;
72 [label="X[16] <= 2.0295\nmse = 28574.7499346\nsamples = 53", shape="box"] ;
28 -> 72 ;
73 [label="X[18] <= 0.4028\nmse = 20881.6427938\nsamples = 49", shape="box"] ;
72 -> 73 ;
74 [label="X[17] <= 1.1421\nmse = 18902.0137033\nsamples = 34", shape="box"] ;
73 -> 74 ;
75 [label="X[13] <= -0.1668\nmse = 12666.9332929\nsamples = 28", shape="box"] ;
74 -> 75 ;
76 [label="X[13] <= -0.2562\nmse = 3331.44853016\nsamples = 6", shape="box"] ;
75 -> 76 ;
77 [label="X[5] <= 0.8941\nmse = 1399.61617186\nsamples = 5", shape="box"] ;
76 -> 77 ;
78 [label="X[0] <= -0.3299\nmse = 388.312996288\nsamples = 4", shape="box"] ;
77 -> 78 ;
79 [label="X[13] <= -0.3417\nmse = 2.29171656234\nsamples = 2", shape="box"] ;
78 -> 79 ;
80 [label="mse = 0.0000\nsamples = 1\nvalue = [-242.89059966]", shape="box"] ;
79 -> 80 ;
81 [label="mse = 0.0000\nsamples = 1\nvalue = [-245.91828297]", shape="box"] ;
79 -> 81 ;
82 [label="X[9] <= -0.4235\nmse = 123.024558809\nsamples = 2", shape="box"] ;
78 -> 82 ;
83 [label="mse = 0.0000\nsamples = 1\nvalue = [-291.58790446]", shape="box"] ;
82 -> 83 ;
84 [label="mse = 0.0000\nsamples = 1\nvalue = [-269.40461716]", shape="box"] ;
82 -> 84 ;
85 [label="mse = -0.0000\nsamples = 1\nvalue = [-179.95164748]", shape="box"] ;
77 -> 85 ;
86 [label="mse = 0.0000\nsamples = 1\nvalue = [-370.80545561]", shape="box"] ;
76 -> 86 ;
87 [label="X[4] <= 0.8935\nmse = 7894.12619009\nsamples = 22", shape="box"] ;
75 -> 87 ;
88 [label="X[6] <= 0.7437\nmse = 5407.01125367\nsamples = 18", shape="box"] ;
87 -> 88 ;
89 [label="X[17] <= -0.3109\nmse = 3751.3355509\nsamples = 14", shape="box"] ;
88 -> 89 ;
90 [label="X[17] <= -0.3675\nmse = 1329.81869598\nsamples = 2", shape="box"] ;
89 -> 90 ;
91 [label="mse = 0.0000\nsamples = 1\nvalue = [-269.9207226]", shape="box"] ;
90 -> 91 ;
92 [label="mse = -0.0000\nsamples = 1\nvalue = [-196.98736409]", shape="box"] ;
90 -> 92 ;
93 [label="X[17] <= -0.1410\nmse = 2118.44808312\nsamples = 12", shape="box"] ;
89 -> 93 ;
94 [label="X[0] <= 0.3541\nmse = 503.978571483\nsamples = 2", shape="box"] ;
93 -> 94 ;
95 [label="mse = 0.0000\nsamples = 1\nvalue = [-53.56498453]", shape="box"] ;
94 -> 95 ;
96 [label="mse = 0.0000\nsamples = 1\nvalue = [-8.6660504]", shape="box"] ;
94 -> 96 ;
97 [label="X[19] <= -0.4655\nmse = 790.256032445\nsamples = 10", shape="box"] ;
93 -> 97 ;
98 [label="X[7] <= -0.2997\nmse = 158.728929045\nsamples = 5", shape="box"] ;
97 -> 98 ;
99 [label="X[3] <= -0.5030\nmse = 0.0070657747965\nsamples = 2", shape="box"] ;
98 -> 99 ;
100 [label="mse = 0.0000\nsamples = 1\nvalue = [-91.56891053]", shape="box"] ;
99 -> 100 ;
101 [label="mse = 0.0000\nsamples = 1\nvalue = [-91.4007942]", shape="box"] ;
99 -> 101 ;
102 [label="X[15] <= 0.7835\nmse = 50.3769502259\nsamples = 3", shape="box"] ;
98 -> 102 ;
103 [label="X[13] <= 0.8279\nmse = 14.9180597359\nsamples = 2", shape="box"] ;
102 -> 103 ;
104 [label="mse = 0.0000\nsamples = 1\nvalue = [-122.98250613]", shape="box"] ;
103 -> 104 ;
105 [label="mse = 0.0000\nsamples = 1\nvalue = [-115.25772529]", shape="box"] ;
103 -> 105 ;
106 [label="mse = 0.0000\nsamples = 1\nvalue = [-105.63152435]", shape="box"] ;
102 -> 106 ;
107 [label="X[9] <= 1.8460\nmse = 143.757140495\nsamples = 5", shape="box"] ;
97 -> 107 ;
108 [label="X[7] <= -1.2405\nmse = 30.8032039745\nsamples = 4", shape="box"] ;
107 -> 108 ;
109 [label="mse = 0.0000\nsamples = 1\nvalue = [-159.6788813]", shape="box"] ;
108 -> 109 ;
110 [label="X[2] <= -0.8350\nmse = 3.37004812767\nsamples = 3", shape="box"] ;
108 -> 110 ;
111 [label="X[14] <= 0.5399\nmse = 1.08675949171\nsamples = 2", shape="box"] ;
110 -> 111 ;
112 [label="mse = 0.0000\nsamples = 1\nvalue = [-147.50631133]", shape="box"] ;
111 -> 112 ;
113 [label="mse = 0.0000\nsamples = 1\nvalue = [-149.59126647]", shape="box"] ;
111 -> 113 ;
114 [label="mse = -0.0000\nsamples = 1\nvalue = [-145.09843557]", shape="box"] ;
110 -> 114 ;
115 [label="mse = 0.0000\nsamples = 1\nvalue = [-177.7536299]", shape="box"] ;
107 -> 115 ;
116 [label="X[9] <= 0.5008\nmse = 872.285859239\nsamples = 4", shape="box"] ;
88 -> 116 ;
117 [label="mse = 0.0000\nsamples = 1\nvalue = [ 30.8681842]", shape="box"] ;
116 -> 117 ;
118 [label="X[13] <= 1.2610\nmse = 192.088708557\nsamples = 3", shape="box"] ;
116 -> 118 ;
119 [label="X[15] <= -1.7351\nmse = 8.79802278071\nsamples = 2", shape="box"] ;
118 -> 119 ;
120 [label="mse = 0.0000\nsamples = 1\nvalue = [-38.13554242]", shape="box"] ;
119 -> 120 ;
121 [label="mse = -0.0000\nsamples = 1\nvalue = [-44.06783465]", shape="box"] ;
119 -> 121 ;
122 [label="mse = -0.0000\nsamples = 1\nvalue = [-12.15337044]", shape="box"] ;
118 -> 122 ;
123 [label="X[1] <= 1.0940\nmse = 5353.46308756\nsamples = 4", shape="box"] ;
87 -> 123 ;
124 [label="X[2] <= -0.6672\nmse = 1528.39844952\nsamples = 3", shape="box"] ;
123 -> 124 ;
125 [label="X[15] <= 0.8355\nmse = 204.67432688\nsamples = 2", shape="box"] ;
124 -> 125 ;
126 [label="mse = 0.0000\nsamples = 1\nvalue = [ 102.18538919]", shape="box"] ;
125 -> 126 ;
127 [label="mse = -0.0000\nsamples = 1\nvalue = [ 73.5725021]", shape="box"] ;
125 -> 127 ;
128 [label="mse = 0.0000\nsamples = 1\nvalue = [ 8.73496267]", shape="box"] ;
124 -> 128 ;
129 [label="mse = 0.0000\nsamples = 1\nvalue = [-88.29627153]", shape="box"] ;
123 -> 129 ;
130 [label="X[14] <= 0.1686\nmse = 13889.8704817\nsamples = 6", shape="box"] ;
74 -> 130 ;
131 [label="X[7] <= -1.0422\nmse = 12.9204891975\nsamples = 2", shape="box"] ;
130 -> 131 ;
132 [label="mse = 0.0000\nsamples = 1\nvalue = [-55.58712152]", shape="box"] ;
131 -> 132 ;
133 [label="mse = -0.0000\nsamples = 1\nvalue = [-62.77613792]", shape="box"] ;
131 -> 133 ;
134 [label="X[1] <= 0.7771\nmse = 5887.04846918\nsamples = 4", shape="box"] ;
130 -> 134 ;
135 [label="X[10] <= -0.5840\nmse = 151.997420172\nsamples = 3", shape="box"] ;
134 -> 135 ;
136 [label="mse = 0.0000\nsamples = 1\nvalue = [ 92.24992992]", shape="box"] ;
135 -> 136 ;
137 [label="X[14] <= 0.9627\nmse = 25.8439337925\nsamples = 2", shape="box"] ;
135 -> 137 ;
138 [label="mse = 0.0000\nsamples = 1\nvalue = [ 121.95996219]", shape="box"] ;
137 -> 138 ;
139 [label="mse = -0.0000\nsamples = 1\nvalue = [ 111.79257633]", shape="box"] ;
137 -> 139 ;
140 [label="mse = 0.0000\nsamples = 1\nvalue = [ 284.13715112]", shape="box"] ;
134 -> 140 ;
141 [label="X[19] <= 0.4095\nmse = 10086.5334107\nsamples = 15", shape="box"] ;
73 -> 141 ;
142 [label="X[7] <= -1.0310\nmse = 5859.85075931\nsamples = 11", shape="box"] ;
141 -> 142 ;
143 [label="X[18] <= 1.5435\nmse = 1173.41046406\nsamples = 3", shape="box"] ;
142 -> 143 ;
144 [label="X[9] <= 1.4324\nmse = 183.364279516\nsamples = 2", shape="box"] ;
143 -> 144 ;
145 [label="mse = 0.0000\nsamples = 1\nvalue = [-38.97534696]", shape="box"] ;
144 -> 145 ;
146 [label="mse = 0.0000\nsamples = 1\nvalue = [-66.0577604]", shape="box"] ;
144 -> 146 ;
147 [label="mse = 0.0000\nsamples = 1\nvalue = [-121.29339753]", shape="box"] ;
143 -> 147 ;
148 [label="X[18] <= 1.0216\nmse = 2987.86598425\nsamples = 8", shape="box"] ;
142 -> 148 ;
149 [label="X[13] <= -0.6604\nmse = 138.272337409\nsamples = 3", shape="box"] ;
148 -> 149 ;
150 [label="mse = 0.0000\nsamples = 1\nvalue = [-23.66367875]", shape="box"] ;
149 -> 150 ;
151 [label="X[8] <= -0.0430\nmse = 27.4355002053\nsamples = 2", shape="box"] ;
149 -> 151 ;
152 [label="mse = 0.0000\nsamples = 1\nvalue = [-5.66541202]", shape="box"] ;
151 -> 152 ;
153 [label="mse = -0.0000\nsamples = 1\nvalue = [ 4.81036962]", shape="box"] ;
151 -> 153 ;
154 [label="X[2] <= -0.8822\nmse = 885.345829823\nsamples = 5", shape="box"] ;
148 -> 154 ;
155 [label="X[6] <= -0.5860\nmse = 91.6972196815\nsamples = 3", shape="box"] ;
154 -> 155 ;
156 [label="mse = 0.0000\nsamples = 1\nvalue = [ 129.4198632]", shape="box"] ;
155 -> 156 ;
157 [label="X[19] <= -0.0861\nmse = 5.81242613913\nsamples = 2", shape="box"] ;
155 -> 157 ;
158 [label="mse = 0.0000\nsamples = 1\nvalue = [ 107.12932272]", shape="box"] ;
157 -> 158 ;
159 [label="mse = 0.0000\nsamples = 1\nvalue = [ 111.95111747]", shape="box"] ;
157 -> 159 ;
160 [label="X[18] <= 1.4622\nmse = 2.63473526571\nsamples = 2", shape="box"] ;
154 -> 160 ;
161 [label="mse = 0.0000\nsamples = 1\nvalue = [ 55.76172429]", shape="box"] ;
160 -> 161 ;
162 [label="mse = 0.0000\nsamples = 1\nvalue = [ 59.00809781]", shape="box"] ;
160 -> 162 ;
163 [label="X[0] <= 1.0901\nmse = 2234.41166068\nsamples = 4", shape="box"] ;
141 -> 163 ;
164 [label="X[14] <= -0.6432\nmse = 587.980258468\nsamples = 2", shape="box"] ;
163 -> 164 ;
165 [label="mse = 0.0000\nsamples = 1\nvalue = [ 201.9658092]", shape="box"] ;
164 -> 165 ;
166 [label="mse = -0.0000\nsamples = 1\nvalue = [ 250.46241768]", shape="box"] ;
164 -> 166 ;
167 [label="X[5] <= -0.0577\nmse = 19.7398441243\nsamples = 2", shape="box"] ;
163 -> 167 ;
168 [label="mse = 0.0000\nsamples = 1\nvalue = [ 142.78098218]", shape="box"] ;
167 -> 168 ;
169 [label="mse = -0.0000\nsamples = 1\nvalue = [ 133.89507331]", shape="box"] ;
167 -> 169 ;
170 [label="X[0] <= 0.5377\nmse = 23085.454886\nsamples = 4", shape="box"] ;
72 -> 170 ;
171 [label="X[6] <= 0.4045\nmse = 662.418509848\nsamples = 3", shape="box"] ;
170 -> 171 ;
172 [label="mse = 0.0000\nsamples = 1\nvalue = [ 410.19553204]", shape="box"] ;
171 -> 172 ;
173 [label="X[13] <= -1.1835\nmse = 64.7448063795\nsamples = 2", shape="box"] ;
171 -> 173 ;
174 [label="mse = 0.0000\nsamples = 1\nvalue = [ 349.36039709]", shape="box"] ;
173 -> 174 ;
175 [label="mse = 0.0000\nsamples = 1\nvalue = [ 365.45322858]", shape="box"] ;
173 -> 175 ;
176 [label="mse = 0.0000\nsamples = 1\nvalue = [ 27.91120303]", shape="box"] ;
170 -> 176 ;
177 [label="X[12] <= -0.3039\nmse = 26668.0694194\nsamples = 4", shape="box"] ;
27 -> 177 ;
178 [label="X[19] <= 0.7689\nmse = 518.841944153\nsamples = 2", shape="box"] ;
177 -> 178 ;
179 [label="mse = 0.0000\nsamples = 1\nvalue = [ 565.62496759]", shape="box"] ;
178 -> 179 ;
180 [label="mse = -0.0000\nsamples = 1\nvalue = [ 611.18117218]", shape="box"] ;
178 -> 180 ;
181 [label="X[8] <= -0.8907\nmse = 90.8447677461\nsamples = 2", shape="box"] ;
177 -> 181 ;
182 [label="mse = 0.0000\nsamples = 1\nvalue = [ 273.19919267]", shape="box"] ;
181 -> 182 ;
183 [label="mse = 0.0000\nsamples = 1\nvalue = [ 254.13668835]", shape="box"] ;
181 -> 183 ;
184 [label="X[12] <= -0.3254\nmse = 64363.1735033\nsamples = 108", shape="box"] ;
0 -> 184 ;
185 [label="X[17] <= -0.5265\nmse = 41314.1333377\nsamples = 43", shape="box"] ;
184 -> 185 ;
186 [label="X[19] <= -1.0911\nmse = 15825.2657903\nsamples = 16", shape="box"] ;
185 -> 186 ;
187 [label="X[6] <= -1.0896\nmse = 1744.09151791\nsamples = 3", shape="box"] ;
186 -> 187 ;
188 [label="X[19] <= -1.3554\nmse = 24.7319834501\nsamples = 2", shape="box"] ;
187 -> 188 ;
189 [label="mse = 0.0000\nsamples = 1\nvalue = [ 30.70234543]", shape="box"] ;
188 -> 189 ;
190 [label="mse = 0.0000\nsamples = 1\nvalue = [ 20.75609318]", shape="box"] ;
188 -> 190 ;
191 [label="mse = 0.0000\nsamples = 1\nvalue = [-62.44229469]", shape="box"] ;
187 -> 191 ;
192 [label="X[3] <= 0.5071\nmse = 9251.79257276\nsamples = 13", shape="box"] ;
186 -> 192 ;
193 [label="X[19] <= -0.6751\nmse = 2580.76503067\nsamples = 9", shape="box"] ;
192 -> 193 ;
194 [label="X[8] <= 0.1781\nmse = 950.54888722\nsamples = 4", shape="box"] ;
193 -> 194 ;
195 [label="X[13] <= -0.3797\nmse = 89.5974431228\nsamples = 3", shape="box"] ;
194 -> 195 ;
196 [label="X[2] <= 0.1212\nmse = 10.8413762243\nsamples = 2", shape="box"] ;
195 -> 196 ;
197 [label="mse = 0.0000\nsamples = 1\nvalue = [-309.91943939]", shape="box"] ;
196 -> 197 ;
198 [label="mse = 0.0000\nsamples = 1\nvalue = [-316.50468843]", shape="box"] ;
196 -> 198 ;
199 [label="mse = 0.0000\nsamples = 1\nvalue = [-332.46470958]", shape="box"] ;
195 -> 199 ;
200 [label="mse = -0.0000\nsamples = 1\nvalue = [-388.26782553]", shape="box"] ;
194 -> 200 ;
201 [label="X[5] <= 0.0414\nmse = 593.490572424\nsamples = 5", shape="box"] ;
193 -> 201 ;
202 [label="X[1] <= 0.9783\nmse = 124.262470933\nsamples = 3", shape="box"] ;
201 -> 202 ;
203 [label="X[6] <= -0.6931\nmse = 10.4106000315\nsamples = 2", shape="box"] ;
202 -> 203 ;
204 [label="mse = 0.0000\nsamples = 1\nvalue = [-280.09989303]", shape="box"] ;
203 -> 204 ;
205 [label="mse = -0.0000\nsamples = 1\nvalue = [-273.64680074]", shape="box"] ;
203 -> 205 ;
206 [label="mse = -0.0000\nsamples = 1\nvalue = [-253.89619913]", shape="box"] ;
202 -> 206 ;
207 [label="X[14] <= -0.1499\nmse = 16.4140258609\nsamples = 2", shape="box"] ;
201 -> 207 ;
208 [label="mse = 0.0000\nsamples = 1\nvalue = [-227.06112642]", shape="box"] ;
207 -> 208 ;
209 [label="mse = 0.0000\nsamples = 1\nvalue = [-218.95828103]", shape="box"] ;
207 -> 209 ;
210 [label="X[16] <= 1.1800\nmse = 974.656217554\nsamples = 4", shape="box"] ;
192 -> 210 ;
211 [label="X[16] <= -1.0993\nmse = 158.058860569\nsamples = 3", shape="box"] ;
210 -> 211 ;
212 [label="mse = 0.0000\nsamples = 1\nvalue = [-70.94260225]", shape="box"] ;
211 -> 212 ;
213 [label="X[15] <= 0.3657\nmse = 1.02438803039\nsamples = 2", shape="box"] ;
211 -> 213 ;
214 [label="mse = 0.0000\nsamples = 1\nvalue = [-98.56659438]", shape="box"] ;
213 -> 214 ;
215 [label="mse = 0.0000\nsamples = 1\nvalue = [-96.54235326]", shape="box"] ;
213 -> 215 ;
216 [label="mse = 0.0000\nsamples = 1\nvalue = [-156.2555234]", shape="box"] ;
210 -> 216 ;
217 [label="X[4] <= -0.8641\nmse = 30862.5321582\nsamples = 27", shape="box"] ;
185 -> 217 ;
218 [label="X[19] <= 1.0791\nmse = 5540.18874693\nsamples = 4", shape="box"] ;
217 -> 218 ;
219 [label="X[3] <= -0.4096\nmse = 2399.645074\nsamples = 3", shape="box"] ;
218 -> 219 ;
220 [label="X[18] <= 1.4021\nmse = 10.5455641016\nsamples = 2", shape="box"] ;
219 -> 220 ;
221 [label="mse = 0.0000\nsamples = 1\nvalue = [-177.56726582]", shape="box"] ;
220 -> 221 ;
222 [label="mse = 0.0000\nsamples = 1\nvalue = [-171.07247896]", shape="box"] ;
220 -> 222 ;
223 [label="mse = -0.0000\nsamples = 1\nvalue = [-70.55684362]", shape="box"] ;
219 -> 223 ;
224 [label="mse = 0.0000\nsamples = 1\nvalue = [-280.97345434]", shape="box"] ;
218 -> 224 ;
225 [label="X[9] <= -0.6431\nmse = 22762.1071792\nsamples = 23", shape="box"] ;
217 -> 225 ;
226 [label="X[3] <= 0.5318\nmse = 9008.15822366\nsamples = 5", shape="box"] ;
225 -> 226 ;
227 [label="X[3] <= 0.2091\nmse = 2300.06652043\nsamples = 3", shape="box"] ;
226 -> 227 ;
228 [label="X[7] <= 0.7447\nmse = 236.977153533\nsamples = 2", shape="box"] ;
227 -> 228 ;
229 [label="mse = 0.0000\nsamples = 1\nvalue = [-26.19225572]", shape="box"] ;
228 -> 229 ;
230 [label="mse = -0.0000\nsamples = 1\nvalue = [-56.98038029]", shape="box"] ;
228 -> 230 ;
231 [label="mse = 0.0000\nsamples = 1\nvalue = [ 56.59396454]", shape="box"] ;
227 -> 231 ;
232 [label="X[19] <= -0.5822\nmse = 1633.45724057\nsamples = 2", shape="box"] ;
226 -> 232 ;
233 [label="mse = 0.0000\nsamples = 1\nvalue = [-138.91754319]", shape="box"] ;
232 -> 233 ;
234 [label="mse = 0.0000\nsamples = 1\nvalue = [-219.74964672]", shape="box"] ;
232 -> 234 ;
235 [label="X[4] <= 0.9048\nmse = 13425.7997071\nsamples = 18", shape="box"] ;
225 -> 235 ;
236 [label="X[15] <= 0.6576\nmse = 7240.53613612\nsamples = 16", shape="box"] ;
235 -> 236 ;
237 [label="X[14] <= 0.0047\nmse = 4373.74862844\nsamples = 10", shape="box"] ;
236 -> 237 ;
238 [label="X[18] <= -1.0036\nmse = 2095.78224178\nsamples = 8", shape="box"] ;
237 -> 238 ;
239 [label="X[3] <= -0.8753\nmse = 6.04424064931\nsamples = 2", shape="box"] ;
238 -> 239 ;
240 [label="mse = 0.0000\nsamples = 1\nvalue = [ 177.95582752]", shape="box"] ;
239 -> 240 ;
241 [label="mse = -0.0000\nsamples = 1\nvalue = [ 182.872835]", shape="box"] ;
239 -> 241 ;
242 [label="X[0] <= 1.0698\nmse = 848.106347145\nsamples = 6", shape="box"] ;
238 -> 242 ;
243 [label="X[12] <= -0.4012\nmse = 179.841370145\nsamples = 5", shape="box"] ;
242 -> 243 ;
244 [label="X[8] <= -0.8710\nmse = 28.8153457804\nsamples = 4", shape="box"] ;
243 -> 244 ;
245 [label="X[16] <= 0.7134\nmse = 1.59660627086\nsamples = 2", shape="box"] ;
244 -> 245 ;
246 [label="mse = 0.0000\nsamples = 1\nvalue = [ 80.66825877]", shape="box"] ;
245 -> 246 ;
247 [label="mse = 0.0000\nsamples = 1\nvalue = [ 83.1953965]", shape="box"] ;
245 -> 247 ;
248 [label="X[4] <= -0.0869\nmse = 11.1255421037\nsamples = 2", shape="box"] ;
244 -> 248 ;
249 [label="mse = 0.0000\nsamples = 1\nvalue = [ 88.07351804]", shape="box"] ;
248 -> 249 ;
250 [label="mse = 0.0000\nsamples = 1\nvalue = [ 94.7445126]", shape="box"] ;
248 -> 250 ;
251 [label="mse = 0.0000\nsamples = 1\nvalue = [ 55.36655854]", shape="box"] ;
243 -> 251 ;
252 [label="mse = -0.0000\nsamples = 1\nvalue = [ 151.31322763]", shape="box"] ;
242 -> 252 ;
253 [label="X[9] <= 0.1333\nmse = 1038.76894636\nsamples = 2", shape="box"] ;
237 -> 253 ;
254 [label="mse = 0.0000\nsamples = 1\nvalue = [-42.69011484]", shape="box"] ;
253 -> 254 ;
255 [label="mse = 0.0000\nsamples = 1\nvalue = [ 21.76976249]", shape="box"] ;
253 -> 255 ;
256 [label="X[2] <= 0.4451\nmse = 855.637602666\nsamples = 6", shape="box"] ;
236 -> 256 ;
257 [label="X[1] <= -0.0017\nmse = 443.871994606\nsamples = 4", shape="box"] ;
256 -> 257 ;
258 [label="X[18] <= 0.3955\nmse = 155.619479305\nsamples = 2", shape="box"] ;
257 -> 258 ;
259 [label="mse = 0.0000\nsamples = 1\nvalue = [ 270.86551589]", shape="box"] ;
258 -> 259 ;
260 [label="mse = 0.0000\nsamples = 1\nvalue = [ 245.91600853]", shape="box"] ;
258 -> 260 ;
261 [label="X[14] <= -0.9310\nmse = 23.8432475783\nsamples = 2", shape="box"] ;
257 -> 261 ;
262 [label="mse = 0.0000\nsamples = 1\nvalue = [ 225.63646785]", shape="box"] ;
261 -> 262 ;
263 [label="mse = 0.0000\nsamples = 1\nvalue = [ 215.87055825]", shape="box"] ;
261 -> 263 ;
264 [label="X[1] <= 0.0033\nmse = 25.4925956155\nsamples = 2", shape="box"] ;
256 -> 264 ;
265 [label="mse = 0.0000\nsamples = 1\nvalue = [ 184.71835619]", shape="box"] ;
264 -> 265 ;
266 [label="mse = 0.0000\nsamples = 1\nvalue = [ 194.81639473]", shape="box"] ;
264 -> 266 ;
267 [label="X[6] <= 0.1951\nmse = 170.453307635\nsamples = 2", shape="box"] ;
235 -> 267 ;
268 [label="mse = 0.0000\nsamples = 1\nvalue = [ 392.0558244]", shape="box"] ;
267 -> 268 ;
269 [label="mse = 0.0000\nsamples = 1\nvalue = [ 418.16737798]", shape="box"] ;
267 -> 269 ;
270 [label="X[7] <= 1.5845\nmse = 58962.9238832\nsamples = 65", shape="box"] ;
184 -> 270 ;
271 [label="X[1] <= -0.2742\nmse = 50617.7962842\nsamples = 61", shape="box"] ;
270 -> 271 ;
272 [label="X[6] <= -0.4339\nmse = 52820.1050897\nsamples = 27", shape="box"] ;
271 -> 272 ;
273 [label="X[9] <= -0.7750\nmse = 32363.4459299\nsamples = 8", shape="box"] ;
272 -> 273 ;
274 [label="X[0] <= 0.0722\nmse = 11339.9323204\nsamples = 2", shape="box"] ;
273 -> 274 ;
275 [label="mse = 0.0000\nsamples = 1\nvalue = [-334.24854333]", shape="box"] ;
274 -> 275 ;
276 [label="mse = 0.0000\nsamples = 1\nvalue = [-547.22677997]", shape="box"] ;
274 -> 276 ;
277 [label="X[12] <= 1.0982\nmse = 9769.55556457\nsamples = 6", shape="box"] ;
273 -> 277 ;
278 [label="X[12] <= 0.0003\nmse = 3264.94978643\nsamples = 5", shape="box"] ;
277 -> 278 ;
279 [label="X[2] <= 0.8320\nmse = 634.01551305\nsamples = 2", shape="box"] ;
278 -> 279 ;
280 [label="mse = 0.0000\nsamples = 1\nvalue = [-17.55112083]", shape="box"] ;
279 -> 280 ;
281 [label="mse = 0.0000\nsamples = 1\nvalue = [ 32.80820852]", shape="box"] ;
279 -> 281 ;
282 [label="X[9] <= -0.4507\nmse = 73.2526473344\nsamples = 3", shape="box"] ;
278 -> 282 ;
283 [label="mse = 0.0000\nsamples = 1\nvalue = [-93.06015421]", shape="box"] ;
282 -> 283 ;
284 [label="X[18] <= 0.1293\nmse = 27.1059838553\nsamples = 2", shape="box"] ;
282 -> 284 ;
285 [label="mse = 0.0000\nsamples = 1\nvalue = [-103.611953]", shape="box"] ;
284 -> 285 ;
286 [label="mse = 0.0000\nsamples = 1\nvalue = [-114.02463448]", shape="box"] ;
284 -> 286 ;
287 [label="mse = -0.0000\nsamples = 1\nvalue = [-284.36798173]", shape="box"] ;
277 -> 287 ;
288 [label="X[15] <= 0.3335\nmse = 23972.7153941\nsamples = 19", shape="box"] ;
272 -> 288 ;
289 [label="X[0] <= 0.5933\nmse = 3007.25917654\nsamples = 6", shape="box"] ;
288 -> 289 ;
290 [label="X[12] <= 0.1508\nmse = 944.833407142\nsamples = 4", shape="box"] ;
289 -> 290 ;
291 [label="mse = 0.0000\nsamples = 1\nvalue = [ 101.75228199]", shape="box"] ;
290 -> 291 ;
292 [label="X[15] <= -1.8032\nmse = 155.635128848\nsamples = 3", shape="box"] ;
290 -> 292 ;
293 [label="mse = 0.0000\nsamples = 1\nvalue = [ 50.99677318]", shape="box"] ;
292 -> 293 ;
294 [label="X[9] <= -1.0624\nmse = 48.5433155167\nsamples = 2", shape="box"] ;
292 -> 294 ;
295 [label="mse = 0.0000\nsamples = 1\nvalue = [ 34.41140928]", shape="box"] ;
294 -> 295 ;
296 [label="mse = -0.0000\nsamples = 1\nvalue = [ 20.47680264]", shape="box"] ;
294 -> 296 ;
297 [label="X[19] <= -0.7441\nmse = 343.390132416\nsamples = 2", shape="box"] ;
289 -> 297 ;
298 [label="mse = 0.0000\nsamples = 1\nvalue = [-30.47114693]", shape="box"] ;
297 -> 298 ;
299 [label="mse = 0.0000\nsamples = 1\nvalue = [-67.53272447]", shape="box"] ;
297 -> 299 ;
300 [label="X[19] <= 0.4799\nmse = 17518.6307515\nsamples = 13", shape="box"] ;
288 -> 300 ;
301 [label="X[6] <= 0.1269\nmse = 9738.65386002\nsamples = 10", shape="box"] ;
300 -> 301 ;
302 [label="X[9] <= -0.5115\nmse = 3209.01148735\nsamples = 4", shape="box"] ;
301 -> 302 ;
303 [label="X[16] <= -0.6971\nmse = 4.86156731248\nsamples = 2", shape="box"] ;
302 -> 303 ;
304 [label="mse = 0.0000\nsamples = 1\nvalue = [ 162.01423879]", shape="box"] ;
303 -> 304 ;
305 [label="mse = -0.0000\nsamples = 1\nvalue = [ 157.60444636]", shape="box"] ;
303 -> 305 ;
306 [label="X[11] <= 0.8711\nmse = 1077.27368207\nsamples = 2", shape="box"] ;
302 -> 306 ;
307 [label="mse = 0.0000\nsamples = 1\nvalue = [ 23.68320921]", shape="box"] ;
306 -> 307 ;
308 [label="mse = 0.0000\nsamples = 1\nvalue = [ 89.32690447]", shape="box"] ;
306 -> 308 ;
309 [label="X[12] <= 0.3999\nmse = 5693.32799086\nsamples = 6", shape="box"] ;
301 -> 309 ;
310 [label="X[11] <= 0.5401\nmse = 784.002109582\nsamples = 3", shape="box"] ;
309 -> 310 ;
311 [label="X[16] <= 0.4417\nmse = 62.4211632473\nsamples = 2", shape="box"] ;
310 -> 311 ;
312 [label="mse = 0.0000\nsamples = 1\nvalue = [ 215.53282836]", shape="box"] ;
311 -> 312 ;
313 [label="mse = 0.0000\nsamples = 1\nvalue = [ 199.73141535]", shape="box"] ;
311 -> 313 ;
314 [label="mse = 0.0000\nsamples = 1\nvalue = [ 149.83293498]", shape="box"] ;
310 -> 314 ;
315 [label="X[5] <= 1.5662\nmse = 2232.64292474\nsamples = 3", shape="box"] ;
309 -> 315 ;
316 [label="X[4] <= -1.1232\nmse = 108.624661726\nsamples = 2", shape="box"] ;
315 -> 316 ;
317 [label="mse = 0.0000\nsamples = 1\nvalue = [ 295.306202]", shape="box"] ;
316 -> 317 ;
318 [label="mse = -0.0000\nsamples = 1\nvalue = [ 274.46157087]", shape="box"] ;
316 -> 318 ;
319 [label="mse = -0.0000\nsamples = 1\nvalue = [ 383.47911541]", shape="box"] ;
315 -> 319 ;
320 [label="X[0] <= 0.2614\nmse = 8510.88447187\nsamples = 3", shape="box"] ;
300 -> 320 ;
321 [label="X[15] <= 0.7615\nmse = 1525.01235058\nsamples = 2", shape="box"] ;
320 -> 321 ;
322 [label="mse = 0.0000\nsamples = 1\nvalue = [ 386.06252797]", shape="box"] ;
321 -> 322 ;
323 [label="mse = 0.0000\nsamples = 1\nvalue = [ 307.95971494]", shape="box"] ;
321 -> 323 ;
324 [label="mse = -0.0000\nsamples = 1\nvalue = [ 530.65192049]", shape="box"] ;
320 -> 324 ;
325 [label="X[18] <= 0.4495\nmse = 31842.9721721\nsamples = 34", shape="box"] ;
271 -> 325 ;
326 [label="X[10] <= 1.1399\nmse = 30591.5770607\nsamples = 19", shape="box"] ;
325 -> 326 ;
327 [label="X[12] <= 0.7012\nmse = 20991.7227226\nsamples = 15", shape="box"] ;
326 -> 327 ;
328 [label="X[10] <= -0.9170\nmse = 5926.03629139\nsamples = 6", shape="box"] ;
327 -> 328 ;
329 [label="X[12] <= -0.1096\nmse = 505.95619428\nsamples = 2", shape="box"] ;
328 -> 329 ;
330 [label="mse = 0.0000\nsamples = 1\nvalue = [ 95.35578856]", shape="box"] ;
329 -> 330 ;
331 [label="mse = -0.0000\nsamples = 1\nvalue = [ 50.36884849]", shape="box"] ;
329 -> 331 ;
332 [label="X[18] <= 0.3416\nmse = 1631.91822919\nsamples = 4", shape="box"] ;
328 -> 332 ;
333 [label="X[13] <= -0.5296\nmse = 395.909197467\nsamples = 3", shape="box"] ;
332 -> 333 ;
334 [label="mse = 0.0000\nsamples = 1\nvalue = [-26.24416704]", shape="box"] ;
333 -> 334 ;
335 [label="X[15] <= 0.1645\nmse = 134.24138992\nsamples = 2", shape="box"] ;
333 -> 335 ;
336 [label="mse = 0.0000\nsamples = 1\nvalue = [-51.79100976]", shape="box"] ;
335 -> 336 ;
337 [label="mse = 0.0000\nsamples = 1\nvalue = [-74.9635271]", shape="box"] ;
335 -> 337 ;
338 [label="mse = -0.0000\nsamples = 1\nvalue = [-135.37922842]", shape="box"] ;
332 -> 338 ;
339 [label="X[17] <= 0.0124\nmse = 7988.24053745\nsamples = 9", shape="box"] ;
327 -> 339 ;
340 [label="X[8] <= -1.2717\nmse = 1377.25465389\nsamples = 5", shape="box"] ;
339 -> 340 ;
341 [label="mse = 0.0000\nsamples = 1\nvalue = [ 212.69260144]", shape="box"] ;
340 -> 341 ;
342 [label="X[15] <= 0.5589\nmse = 421.661639192\nsamples = 4", shape="box"] ;
340 -> 342 ;
343 [label="X[2] <= 0.5713\nmse = 0.163495354022\nsamples = 2", shape="box"] ;
342 -> 343 ;
344 [label="mse = 0.0000\nsamples = 1\nvalue = [ 111.97980624]", shape="box"] ;
343 -> 344 ;
345 [label="mse = -0.0000\nsamples = 1\nvalue = [ 111.17111506]", shape="box"] ;
343 -> 345 ;
346 [label="X[7] <= -0.7429\nmse = 2.86828382646\nsamples = 2", shape="box"] ;
342 -> 346 ;
347 [label="mse = 0.0000\nsamples = 1\nvalue = [ 150.8767741]", shape="box"] ;
346 -> 347 ;
348 [label="mse = 0.0000\nsamples = 1\nvalue = [ 154.2639758]", shape="box"] ;
346 -> 348 ;
349 [label="X[0] <= -0.1268\nmse = 3221.91695142\nsamples = 4", shape="box"] ;
339 -> 349 ;
350 [label="X[5] <= -0.1648\nmse = 1075.93236513\nsamples = 2", shape="box"] ;
349 -> 350 ;
351 [label="mse = 0.0000\nsamples = 1\nvalue = [ 385.92177345]", shape="box"] ;
350 -> 351 ;
352 [label="mse = -0.0000\nsamples = 1\nvalue = [ 320.3189575]", shape="box"] ;
350 -> 352 ;
353 [label="X[6] <= -0.3018\nmse = 6.35301119249\nsamples = 2", shape="box"] ;
349 -> 353 ;
354 [label="mse = 0.0000\nsamples = 1\nvalue = [ 247.04745947]", shape="box"] ;
353 -> 354 ;
355 [label="mse = 0.0000\nsamples = 1\nvalue = [ 252.08849555]", shape="box"] ;
353 -> 355 ;
356 [label="X[12] <= 0.3743\nmse = 11348.0914097\nsamples = 4", shape="box"] ;
326 -> 356 ;
357 [label="mse = 0.0000\nsamples = 1\nvalue = [ 218.41191361]", shape="box"] ;
356 -> 357 ;
358 [label="X[5] <= -0.2356\nmse = 2830.20524455\nsamples = 3", shape="box"] ;
356 -> 358 ;
359 [label="mse = 0.0000\nsamples = 1\nvalue = [ 507.24159019]", shape="box"] ;
358 -> 359 ;
360 [label="X[0] <= -0.6970\nmse = 877.182177024\nsamples = 2", shape="box"] ;
358 -> 360 ;
361 [label="mse = 0.0000\nsamples = 1\nvalue = [ 436.33832107]", shape="box"] ;
360 -> 361 ;
362 [label="mse = 0.0000\nsamples = 1\nvalue = [ 377.10379813]", shape="box"] ;
360 -> 362 ;
363 [label="X[15] <= -0.8239\nmse = 11322.3827515\nsamples = 15", shape="box"] ;
325 -> 363 ;
364 [label="X[9] <= 0.8968\nmse = 96.764275773\nsamples = 2", shape="box"] ;
363 -> 364 ;
365 [label="mse = 0.0000\nsamples = 1\nvalue = [ 211.29763452]", shape="box"] ;
364 -> 365 ;
366 [label="mse = 0.0000\nsamples = 1\nvalue = [ 191.62386765]", shape="box"] ;
364 -> 366 ;
367 [label="X[1] <= 0.3302\nmse = 7713.99170867\nsamples = 13", shape="box"] ;
363 -> 367 ;
368 [label="X[17] <= 0.0177\nmse = 4906.81397754\nsamples = 8", shape="box"] ;
367 -> 368 ;
369 [label="X[1] <= -0.0013\nmse = 416.607039994\nsamples = 3", shape="box"] ;
368 -> 369 ;
370 [label="mse = 0.0000\nsamples = 1\nvalue = [ 288.88604608]", shape="box"] ;
369 -> 370 ;
371 [label="X[12] <= 0.8761\nmse = 147.350254886\nsamples = 2", shape="box"] ;
369 -> 371 ;
372 [label="mse = 0.0000\nsamples = 1\nvalue = [ 263.17406575]", shape="box"] ;
371 -> 372 ;
373 [label="mse = 0.0000\nsamples = 1\nvalue = [ 238.89648309]", shape="box"] ;
371 -> 373 ;
374 [label="X[13] <= -0.4926\nmse = 713.50626323\nsamples = 5", shape="box"] ;
368 -> 374 ;
375 [label="X[19] <= 0.3806\nmse = 3.38580453035\nsamples = 2", shape="box"] ;
374 -> 375 ;
376 [label="mse = 0.0000\nsamples = 1\nvalue = [ 426.59297515]", shape="box"] ;
375 -> 376 ;
377 [label="mse = 0.0000\nsamples = 1\nvalue = [ 430.27308631]", shape="box"] ;
375 -> 377 ;
378 [label="X[18] <= 1.3362\nmse = 235.78608065\nsamples = 3", shape="box"] ;
374 -> 378 ;
379 [label="X[6] <= -0.7854\nmse = 80.3169515987\nsamples = 2", shape="box"] ;
378 -> 379 ;
380 [label="mse = 0.0000\nsamples = 1\nvalue = [ 361.16229571]", shape="box"] ;
379 -> 380 ;
381 [label="mse = -0.0000\nsamples = 1\nvalue = [ 379.08624077]", shape="box"] ;
379 -> 381 ;
382 [label="mse = -0.0000\nsamples = 1\nvalue = [ 398.76142082]", shape="box"] ;
378 -> 382 ;
383 [label="X[11] <= -0.3661\nmse = 455.74658939\nsamples = 5", shape="box"] ;
367 -> 383 ;
384 [label="X[16] <= 0.4922\nmse = 140.505290656\nsamples = 2", shape="box"] ;
383 -> 384 ;
385 [label="mse = 0.0000\nsamples = 1\nvalue = [ 519.18433532]", shape="box"] ;
384 -> 385 ;
386 [label="mse = 0.0000\nsamples = 1\nvalue = [ 495.47734979]", shape="box"] ;
384 -> 386 ;
387 [label="X[18] <= 1.5992\nmse = 185.278597405\nsamples = 3", shape="box"] ;
383 -> 387 ;
388 [label="X[3] <= -0.4850\nmse = 4.19521998477\nsamples = 2", shape="box"] ;
387 -> 388 ;
389 [label="mse = 0.0000\nsamples = 1\nvalue = [ 484.26737534]", shape="box"] ;
388 -> 389 ;
390 [label="mse = -0.0000\nsamples = 1\nvalue = [ 480.1709281]", shape="box"] ;
388 -> 390 ;
391 [label="mse = 0.0000\nsamples = 1\nvalue = [ 453.56312219]", shape="box"] ;
387 -> 391 ;
392 [label="X[0] <= -0.2351\nmse = 21509.1116397\nsamples = 4", shape="box"] ;
270 -> 392 ;
393 [label="X[7] <= 2.4753\nmse = 198.490509892\nsamples = 2", shape="box"] ;
392 -> 393 ;
394 [label="mse = 0.0000\nsamples = 1\nvalue = [ 753.97353678]", shape="box"] ;
393 -> 394 ;
395 [label="mse = -0.0000\nsamples = 1\nvalue = [ 725.79620476]", shape="box"] ;
393 -> 395 ;
396 [label="X[19] <= 0.9596\nmse = 1311.08336693\nsamples = 2", shape="box"] ;
392 -> 396 ;
397 [label="mse = 0.0000\nsamples = 1\nvalue = [ 487.96652919]", shape="box"] ;
396 -> 397 ;
398 [label="mse = 0.0000\nsamples = 1\nvalue = [ 415.54875881]", shape="box"] ;
396 -> 398 ;
}